frey -1.590520 -0.349482 -0.492254 0.837594 -0.156585 0.158481 -0.501579 0.417007 -1.560010 -1.846790 0.368337 0.196197 -0.970884 0.142577 -0.316770 -0.770680 1.441640 0.028035 -0.414506 -1.852840 -0.780534 1.135680 0.543698 0.795048 0.607334 0.552189 0.869197 -1.066000 -0.939273 1.958860 0.422018 1.646200 0.224333 -0.122236 0.901402 0.222226 1.169290 -0.206141 0.387942 -1.654800 0.867052 0.010673 -1.570800 1.071970 -0.804954 -0.084104 1.991620 -0.506739 -0.458719 0.857254
friar -0.798852 -0.589686 -0.046746 0.242914 -0.178226 0.179763 -0.448033 -0.168657 1.406260 -1.499200 -1.452920 2.376320 -0.623966 0.218246 -1.235560 0.639627 0.986826 0.205467 -0.627669 0.139650 -0.041828 1.353380 0.798127 -0.629301 -1.102700 -1.491760 -0.899268 -1.149450 0.451509 -0.353003 -1.352590 -0.683836 -0.545047 0.393834 -0.866210 -0.992366 0.390999 0.863227 0.495834 -1.733170 -1.132040 -0.075038 0.099647 1.277040 -1.805080 -0.277365 -0.173968 0.097260 0.910994 2.661220
friction 1.163730 0.092373 -0.158294 0.787225 -1.331430 -0.111925 -0.450724 1.423770 0.605530 0.728623 1.149500 -0.884800 0.367174 -2.083120 0.924939 -0.440147 -0.602747 0.950634 0.174764 -0.505426 -1.710620 -1.206470 0.110253 -1.255650 1.362770 0.856459 0.564238 -0.679827 -0.372164 -0.781618 0.386843 0.888670 -0.287345 0.080044 -0.122217 0.390496 0.043039 -0.918917 -1.262720 2.914170 -0.081472 -0.901177 0.820108 0.683400 -1.594390 1.413830 -1.376940 0.131049 -1.254900 -0.411022
friday 0.607364 0.712922 -0.077839 0.786895 1.184230 0.648919 1.446740 0.075289 -0.417079 0.946510 0.318089 -0.079841 1.512890 1.190030 -0.778684 -1.335540 0.094076 -0.865077 -0.056116 1.340170 1.163340 -0.498554 -1.159980 -0.557974 1.508150 -0.468447 0.974541 0.903238 0.470154 -0.110949 -1.713220 -2.377730 0.099413 0.957080 -0.705301 0.750431 1.181350 0.041279 -0.629577 -0.460076 -1.846380 1.000250 -2.173430 0.594038 -0.076090 0.112829 1.233520 0.283073 0.604475 1.122270
fridays -0.102594 0.511244 -1.395290 -0.028183 0.104491 -0.432465 0.916866 0.037028 -0.595905 0.303051 1.191460 -0.343399 1.227690 0.799696 0.167754 -1.261770 0.547605 -0.671741 -0.609693 2.388330 1.728860 -1.010750 -2.056140 0.530759 1.564880 -1.108220 1.474340 1.219270 0.824131 0.414777 -0.522975 -0.754823 0.353614 -1.322110 -1.418120 0.265082 0.656206 0.737127 -0.838835 0.509506 -0.877569 0.849716 -1.536450 0.078689 0.631419 0.103806 1.880990 -0.654033 0.563492 0.302368
fried 0.476370 0.484762 -0.306410 -0.696023 0.293736 0.779542 1.529580 0.216808 -1.270640 -0.493394 -0.610457 1.400180 -0.534958 0.922497 -0.831134 -0.604313 -1.863130 0.566325 1.144390 -0.481834 -0.026387 0.362816 0.489902 0.660938 -0.941041 -0.899702 -0.039062 -1.686000 0.963660 1.167100 0.806177 0.892152 -0.163487 -0.331728 -1.059620 -1.249980 -0.344277 0.055903 -0.343075 -0.050090 -2.740890 0.047791 0.626390 0.163898 0.848157 0.239553 -0.317547 -0.852743 0.949686 -3.302060
friedman -0.850304 -1.182690 -0.241568 -0.137877 -0.552719 -1.750300 -0.094434 0.249440 -1.085770 -1.641580 -0.538474 -0.189205 0.570818 -0.824669 0.138886 -0.863649 -0.180200 0.621878 -0.964457 -0.223682 -1.477810 0.529105 1.574800 1.011390 0.457630 -0.851300 1.298560 -0.186430 -0.823382 0.284908 -0.890152 1.586810 1.091170 0.107881 0.356781 0.274302 0.366973 -0.729136 1.985060 0.276983 -0.578032 -1.337250 -1.525200 0.192323 0.145597 0.123143 0.334403 -2.512400 0.852273 -0.104203
friedrich -0.659056 -1.309740 1.313300 -0.646729 -0.279702 -0.562585 -1.945690 -0.417448 -1.027170 -1.161430 -2.198530 0.316460 0.250958 -0.919416 -0.553833 -0.461449 0.128649 -0.424970 -1.455520 1.623090 -1.570120 2.167800 2.541390 -0.440044 -0.377983 0.631197 -1.430010 -0.673655 -0.530021 0.559903 0.681892 -0.965905 1.621800 -0.089348 0.000593 0.053535 0.939557 -1.180290 0.650372 -0.356649 -0.544016 -0.943029 -0.135462 -0.641937 0.323085 -0.499132 -0.441444 -0.844539 1.058740 -0.162073
friend -1.031410 0.138397 -1.117560 0.404335 -0.482472 -0.388512 0.918457 -0.610975 -1.126150 -0.221954 -1.767080 0.198321 -0.467456 -0.911845 0.070613 1.974000 1.655160 0.823679 -1.885510 0.777623 -0.847916 -0.323346 -0.005558 -0.467308 -1.167070 -0.485808 -0.450853 -0.412951 1.136520 0.454442 -1.362540 1.030550 1.474950 1.262580 1.012750 1.560920 -2.320980 -0.131327 -0.905166 -1.599060 -1.454020 0.396423 0.034545 0.480695 -0.729122 0.181499 -0.818657 0.692688 0.254470 0.581310
friendlier 0.763389 -0.858617 -0.257785 -0.251859 -0.947055 0.966674 -0.329300 -0.588794 -0.324231 -1.138150 1.685570 -0.346083 -0.277549 -0.460551 1.612120 0.473075 0.068215 -0.069488 -0.965901 0.780246 1.922680 -1.608790 -0.787025 -0.855217 0.041605 1.959530 -0.668492 -1.247210 -0.806177 0.376969 -1.019540 1.124540 0.605729 -1.082890 1.117360 0.056315 0.493517 -0.254177 -0.317439 0.860076 0.430659 -0.086865 1.434010 0.834534 -0.550978 1.029650 -1.220440 0.469528 -3.120660 0.015855
friendliness 1.568380 -1.535540 0.109116 1.008170 0.190170 -0.702786 0.321535 -0.085691 0.102489 -2.042450 1.164220 -0.650776 -0.837053 -0.761520 -0.249939 -1.019880 0.096785 1.223000 -1.004630 0.477088 0.156600 -0.010795 -2.738740 -1.197250 0.461435 -1.845490 0.040885 -0.049236 -0.737881 -0.530249 -0.847763 1.732050 0.502930 0.472849 1.660190 1.359720 -0.716142 0.374080 -0.986303 0.616970 0.635605 -0.180334 -0.213828 0.231985 0.574487 1.663750 -1.235840 -0.093683 -0.650453 -0.739333
friendly -0.406805 0.525126 0.194128 -2.073620 0.728376 0.897659 1.867380 -0.004196 -0.247517 -0.072741 0.371102 1.065190 -0.104675 -0.096664 0.651880 0.093882 -1.375120 2.022230 0.396101 0.644475 -0.034425 -0.449825 -0.205216 0.220997 0.190943 0.117649 -0.649766 1.118170 0.245680 -0.627021 -0.594109 0.577337 -1.034050 0.805449 -1.003760 1.786670 -0.330183 -0.508335 -0.580772 0.432607 -0.731316 1.160960 -1.458670 -0.072091 -0.904233 0.449909 -1.637970 -0.285496 -2.825400 -0.683484
friends 0.274383 -1.022900 -0.715026 -0.290788 -0.907603 -0.819257 2.361370 -0.200647 -1.603090 0.635885 -0.332394 -0.448884 -0.068875 -1.212040 -0.149953 1.760020 0.135197 0.755436 -0.019450 -0.037396 -0.683880 -0.604872 -0.982891 -0.126536 -0.849943 -0.390047 -0.411731 -0.084293 1.214830 1.676630 0.433661 0.734839 -0.604045 0.641218 -1.228800 0.739744 -1.351840 -0.334832 -1.172900 -1.046510 -1.755660 1.351120 -1.515800 0.795983 0.659771 1.123790 0.453015 -0.919096 -0.833992 1.295340
friendship 1.477330 -0.219647 0.369992 1.128360 -0.258373 -0.877003 0.647088 0.570974 0.440963 -0.801103 -0.273118 -0.172919 -0.270351 -1.598700 0.593846 0.670726 0.947742 -0.122967 -1.432450 -1.675570 -0.043742 -0.328170 -1.434890 -2.185960 1.114450 -1.260630 -0.257413 0.325852 0.643889 -0.797784 -0.875912 1.295020 -0.871481 -0.034371 0.361072 1.918090 -0.744291 -1.001080 -1.257040 -0.157036 -1.952210 0.068421 -1.068610 -0.424520 -1.227990 0.405911 -2.356650 -0.255445 -1.125460 0.640565
friendships 2.574950 -1.638540 -0.800148 -0.418129 -1.761190 0.221067 -0.932029 -0.307169 -0.562549 0.454728 0.529364 -0.105144 -1.491590 -1.144870 0.288811 0.907905 1.123840 1.193160 -1.196870 -0.731804 0.540297 -1.084550 -1.219980 -1.646070 1.425250 -0.814264 0.183466 0.468810 0.416680 0.309285 -0.471996 -0.506413 -0.832324 0.184784 0.206255 0.385766 -0.298444 0.122123 -2.422910 0.086173 -0.728596 0.250770 0.044102 0.702832 0.630636 0.979809 -0.377016 -1.814790 -1.140040 0.838105
fries 0.936827 -0.035420 -2.010450 1.182110 1.058080 0.649620 1.418780 0.281362 -0.446531 -0.734635 -0.555677 -0.414360 -0.391707 -0.924082 -0.374864 0.699470 -0.509316 1.373790 -0.875440 -1.479990 0.128266 0.672297 0.576806 1.509350 -0.359222 -1.579210 -0.262540 -0.952819 -0.295693 0.233786 -0.017192 -1.234120 0.086923 -1.085620 -1.248120 -0.404382 -0.252997 1.268450 0.548283 -0.657574 -1.733270 0.264301 0.518363 1.337600 0.524182 0.138717 1.437620 -0.817699 -0.422912 -2.497850
friezes 1.474810 -1.998980 -1.002560 1.015450 -1.105980 -0.656456 -0.886883 -0.288339 0.683390 0.804868 -0.553262 0.864498 -0.727733 -0.693701 0.169630 0.700056 -0.661297 -0.980972 -0.172511 0.803712 0.085862 0.866701 -1.255320 0.923097 -1.177830 -1.442630 -0.197769 -0.754120 1.125890 0.559815 1.152760 0.517210 -0.945676 -0.384650 -0.798996 -2.086610 0.394151 -1.166980 -0.512650 -0.075252 1.825720 -0.663348 2.251420 0.561993 -0.831621 -0.126475 1.162090 -1.119960 -0.461413 1.286270
frigate -1.982100 1.363380 0.156784 -1.739540 1.672450 -0.081268 -0.004883 1.299990 0.132259 0.290755 -1.789650 -1.015330 0.062201 0.737760 -0.376404 1.570030 0.601584 -0.542793 -0.201788 -1.721750 -1.363160 0.339153 0.823640 0.637015 -1.666520 -0.258447 -2.006400 0.942391 0.405770 1.447880 0.877044 -1.341930 -0.032471 -0.878525 -0.500664 1.400470 -0.253991 -0.018969 -1.161510 0.575658 1.044870 0.271448 0.689408 -0.395710 -1.188550 -0.450845 0.107707 0.371039 -0.272009 -0.066429
frigates -0.104569 -0.740800 -0.992672 0.263518 1.456970 0.305392 -0.310838 0.887941 0.365889 1.046050 -2.172330 -1.383930 0.012556 0.434541 -0.624047 0.798591 -0.107510 0.252807 -2.061520 -1.565870 -0.494991 0.250207 1.201520 0.850101 -0.294336 0.096746 -1.001820 0.258119 0.983365 0.067300 1.078820 -0.912772 -1.174480 -1.417630 -0.844853 -0.286103 0.416182 -0.648990 -0.830524 -0.041189 1.017260 0.144850 1.166780 -0.586140 0.163559 0.565224 1.702700 0.090725 -0.569525 -0.003442
fright 2.145900 1.354540 0.180755 1.926430 -1.406630 -0.532394 -0.879704 0.548358 0.724525 1.055130 0.727239 1.799870 0.675373 0.384176 -0.914011 -0.667979 -0.399927 -1.023460 -0.817172 -0.297559 1.164170 -0.861405 -0.673601 -1.262980 -0.979970 -0.402196 -0.458324 0.907896 1.061790 0.312245 0.337923 -0.414540 0.629881 0.978267 1.340360 1.130450 0.804248 -1.654740 -0.506226 0.684420 -0.586897 -0.238145 -2.093630 0.238714 -0.771791 0.993625 -0.618604 0.626668 -1.175800 -0.271788
frighten 0.998161 0.058977 -0.593418 1.190080 -0.111259 -0.115418 0.689809 -0.642571 -0.331411 -0.190286 0.746995 1.371590 1.496710 0.102635 0.446650 -0.474672 -0.185727 0.392531 -0.991386 -0.643046 0.341778 -1.840960 -1.953430 -0.601922 0.847533 0.066108 -2.617650 -1.227670 0.178431 0.078894 -0.513519 -0.393638 0.488957 -1.372020 -0.209102 -0.284256 -0.355228 2.115600 -0.262980 -0.652235 1.088260 0.360681 0.093729 0.062439 -1.937060 2.193530 -1.570340 0.320573 -1.342170 -0.266086
frightened 0.675354 0.754189 -1.187250 0.395522 -0.432033 0.120871 1.059040 -0.080839 -0.081587 0.177352 0.492617 1.119600 -0.274810 1.249340 0.768149 -0.028867 -0.923735 0.568082 -0.961741 -0.550777 0.724965 -2.444670 -0.226049 0.025931 0.080854 0.746524 -1.845520 -1.319100 0.348600 2.968700 -0.469903 0.883122 1.378150 0.894636 -1.219020 0.752587 0.204266 0.188329 -1.205560 0.260612 -1.137370 0.138437 -0.093913 -0.614324 -0.734151 1.754890 -1.071690 0.763713 -0.827891 0.302321
frightening 2.044870 -0.369286 -0.467720 1.266530 0.274957 0.863427 0.443323 -0.344732 -0.350016 -0.267264 1.665850 1.210890 0.326639 0.403611 1.194130 -1.429150 -0.276807 -0.306000 -1.098600 1.081430 0.172783 -1.556760 -0.222659 0.555809 0.204484 0.392799 -0.524705 -0.400683 1.426010 1.077590 0.011752 0.368614 1.131420 2.059890 0.101136 -0.975718 -0.443368 -0.774774 -0.481604 -1.097290 -0.825103 0.497397 0.623772 0.794254 -0.995690 2.275510 -0.617537 -0.052934 -2.145720 0.502857
fringe 2.015730 -1.202370 1.172900 -0.206523 0.610492 0.375076 0.812612 0.743789 0.914197 0.558637 1.182230 1.098720 0.828617 2.935310 0.206120 0.554393 1.522840 0.565223 -0.198919 0.931863 0.468639 0.286296 -0.842628 0.680174 1.791260 -1.311050 0.505867 0.369955 -2.016990 -0.555834 -0.887124 1.459700 -0.051887 -0.591876 -0.519168 -0.855480 -0.358990 -1.992000 0.245468 -0.552222 0.614784 0.888719 0.167515 1.108330 -0.183466 -1.312760 0.167079 0.329986 -0.559953 -0.067470
fringes 0.946349 1.301820 -0.004860 1.321160 1.059580 0.084799 0.050817 0.174384 0.076771 0.695269 0.500981 -0.372830 -0.020486 1.577160 0.391640 0.747411 0.397593 0.577901 -0.374980 0.831170 -0.725916 -0.631341 -2.465100 -1.081780 0.792280 -1.257470 -0.303028 -1.578940 -0.617461 -0.707257 -0.523144 1.397730 -0.594041 -1.415910 0.293806 -2.104930 0.595274 -0.192487 -1.306160 0.264485 2.836870 0.488780 -0.237201 0.470387 1.070490 -0.348621 1.149090 -0.112959 1.211320 0.952340
frisbee 0.394862 0.739878 -0.321856 0.517942 -0.048940 0.168424 -0.579570 -0.925716 0.525359 0.691174 -0.896817 1.594460 -0.298390 0.647101 -2.264960 0.973746 1.970750 0.071538 -1.057000 -1.400060 1.033560 -1.064300 -1.863750 -1.282720 -0.652971 -1.583190 -0.119692 0.774059 -0.419347 -1.405530 -0.113032 -0.404077 1.548070 0.333048 0.484046 0.446294 -0.762140 -0.591099 0.526651 1.568650 -0.003147 0.124795 -1.062210 -1.150250 0.223739 1.451820 0.903572 0.535494 -1.911060 -0.510146
frivolous 0.636143 -0.136618 1.065630 -0.078357 -0.268963 -0.363938 2.026920 -0.362417 -1.748430 -2.170010 1.348130 -0.262005 1.007720 -1.453720 0.656388 -0.808346 -0.859733 1.234790 0.965805 1.160980 2.167970 0.206413 0.051688 0.329992 0.698963 -0.774397 -0.399006 -0.084724 0.315574 0.722299 -0.757220 0.580033 1.210300 -0.517906 1.431260 1.144070 1.412100 -0.173891 -0.452357 -0.056993 -0.830397 0.044343 1.231510 0.256629 -0.691446 1.829020 0.706370 0.797120 -2.037660 -0.306761
fro 1.003080 -1.151570 -2.321200 -0.389244 0.249077 0.200857 0.332016 0.393361 0.296930 0.110379 0.028852 -0.134141 -0.590374 0.406193 0.029053 -1.225270 0.331508 -0.601634 -1.559890 -0.934772 1.663310 1.077630 -0.994108 -1.508130 0.695468 0.487798 0.420241 -1.195860 -0.637797 -1.446980 -0.413449 2.171780 0.730289 0.255256 0.039643 0.088158 -0.877025 1.287530 -1.255240 -0.229863 0.169427 -0.824793 1.470980 -0.390914 -0.149923 -1.284570 0.021305 1.479650 0.237303 0.729690
frogmen 0.785060 0.101966 -1.012600 0.453036 1.387490 -0.033442 -0.942309 1.049860 0.452393 0.601649 -0.720949 -0.549082 -0.791135 0.015593 -0.968045 1.297970 0.311937 -0.589502 -0.254762 -2.858350 0.451550 1.380190 0.374969 0.130496 0.382487 -0.260607 -1.095900 0.379847 0.542986 0.993232 0.488391 -1.776980 -0.320969 -0.459240 0.564048 0.780477 0.129507 0.074301 -1.198320 1.299360 1.736190 0.232330 1.166530 -0.925519 0.479253 1.592930 0.466167 -0.366370 -1.858750 -0.394087
frogs 1.527250 1.867540 -2.001900 1.649070 -0.353246 -0.049633 -0.261012 -0.376027 1.014540 0.751004 0.180523 0.038513 0.153590 0.246741 -0.236427 1.240330 1.943650 0.466551 1.002190 -1.545570 -0.853570 0.271008 -0.898751 0.043368 -0.651032 -0.986276 -0.202933 -1.362500 1.871550 0.182901 -0.591053 0.397524 -0.447899 -0.918688 -0.266558 -1.849210 -1.085110 -0.041571 1.119700 -0.161307 0.672306 0.488645 -0.282111 -0.065677 0.229257 0.939075 1.656480 -1.655000 0.234408 0.232804
frolic 1.671980 1.090460 -0.788565 2.020160 -0.018098 -0.871543 0.191329 0.861216 -0.433030 -0.658982 -0.725071 2.034430 -0.037807 0.548187 0.660164 -0.633424 0.696407 -1.433370 -0.364997 -0.239391 -0.067908 -1.343960 -1.215300 0.908682 0.824738 -1.836510 -0.412107 0.394089 -0.182159 0.104030 1.027420 1.382490 1.709840 -1.682570 -0.343575 1.311040 0.804184 0.071132 -0.555846 -0.916037 0.491100 0.608898 -0.541954 1.290230 0.802129 0.299799 -0.011376 0.265311 -1.125630 -1.636960
from -0.285426 -0.089369 -0.201531 -0.733416 -0.219532 0.051854 -0.781820 -0.768932 -0.019359 0.920808 1.696790 0.751826 0.655808 -0.252854 1.224460 1.365260 -2.515410 -0.853547 0.686699 -0.074959 0.842942 0.912352 -1.225960 -0.957334 -1.225140 1.115870 -0.420088 0.089164 0.722954 -0.887902 -0.786023 -0.428416 1.155380 0.596592 0.359649 -0.341432 -0.514804 -0.310453 -1.749270 -0.628941 0.458029 -0.173164 -0.203124 0.740266 -0.557077 -2.409170 0.054081 -0.352636 0.069701 -0.630016
fronds 2.764840 0.804494 -1.060570 1.315240 0.026726 0.754352 -0.435641 -0.026087 0.443999 0.893447 -0.194134 -0.224053 0.186609 0.112643 -0.786413 0.105267 -0.358043 -0.260223 0.154328 -0.556527 -0.529665 -0.456439 0.316486 -0.068109 -0.957521 -1.702140 0.932048 -1.498630 1.157740 -0.137801 -1.881010 0.313728 1.462010 -1.833660 -1.193580 -2.216610 0.453788 -0.676114 0.159841 0.381529 0.063635 0.162189 0.955006 0.296659 0.225887 0.232446 1.414540 -1.763270 0.786785 -0.236584
front -0.025297 -0.225567 1.897210 0.940918 0.071222 0.604801 0.941553 1.451430 1.374830 2.297070 1.098020 -0.840809 0.466991 -0.747253 -0.875018 1.279860 -1.120400 0.229112 0.319768 -0.019636 -1.819910 0.427795 -0.401843 0.082954 0.659522 -1.284840 0.179245 -0.517738 -1.099440 0.170149 1.265470 0.512902 -1.974800 1.878030 -0.744564 0.219903 0.214976 -0.208500 -0.414471 1.051470 -0.104093 0.152347 -0.811827 0.473690 -0.487439 -0.650358 -1.283650 1.249190 -1.035740 0.146629
front-page 1.433090 0.377366 0.772342 -1.996380 0.777851 -0.802979 1.132590 1.052290 -0.103934 0.226419 1.886540 0.641954 1.851370 1.262330 -0.348005 -2.055780 0.738688 -0.919073 -0.753973 3.250900 1.373840 1.501640 -1.693180 1.747600 -0.068977 -1.865550 0.053410 -0.091568 1.149590 2.027160 0.221803 -1.172080 0.389377 2.042880 1.701250 2.236920 0.938358 -2.275720 0.440227 -2.898400 1.289530 -2.002170 -0.662328 -1.543650 -1.109800 2.227650 1.894130 0.032555 -0.669197 -0.227224
front-runner -0.352085 -1.510460 0.644211 -2.704330 0.187893 2.521550 1.762590 0.593690 2.232480 1.554080 1.033240 -0.270977 1.272970 -1.101730 -0.178536 1.504440 2.040730 0.022050 -0.062673 0.263181 -1.493040 -1.059330 0.299578 -0.709121 -0.469905 0.051656 -1.039610 -1.422530 1.174680 0.761096 -0.748873 1.031130 1.675850 0.048153 0.551752 1.672350 0.120493 0.262879 -0.015629 0.997785 1.482120 -0.107198 1.250200 0.811438 -1.502930 -0.347713 1.884230 -0.917117 -1.121030 1.652400
front-running 1.239730 -0.751088 3.344480 -2.423500 -1.457100 2.004920 0.581249 1.754860 0.271978 0.411093 0.644502 0.619642 0.749701 0.271477 0.124057 1.443080 0.057387 0.753291 -0.117393 -0.400751 -1.503980 -1.308780 0.018290 -0.909697 2.183120 0.015807 -1.067970 -1.209140 0.745932 1.986690 -0.712107 1.191010 2.283490 0.074293 -1.429430 -1.027400 0.306954 -0.267221 -0.453197 1.441220 0.605681 -0.599655 0.126517 -0.894841 0.993224 0.716280 2.073800 -0.334340 -0.996620 0.339352
frontal 0.222846 1.918740 0.920313 0.166949 -0.454642 0.371301 -0.728092 -0.173981 -1.777320 0.463393 0.087574 0.147587 0.107362 -0.429960 0.439279 -1.040970 -0.209271 0.104060 1.040080 -0.544180 -1.691880 -0.534665 -0.246511 -1.325300 -0.613808 0.120307 0.734777 -1.193230 -1.362580 0.002286 -0.392874 -0.063921 -0.817552 0.699077 0.505204 -1.876210 0.921269 -1.970760 -1.079390 0.096033 0.571144 -1.150270 0.734352 -1.199140 -1.944880 0.828948 -0.722192 2.248050 -2.259710 0.132625
frontend -1.212100 -1.305430 -1.141560 0.256047 1.910560 -0.826779 -0.621895 -0.267007 -0.398803 -0.780328 1.023920 -0.338503 -0.119035 0.547825 -0.210276 1.863980 0.550179 -1.846450 -0.816324 1.915120 0.766053 -0.306682 0.020591 -0.068390 -0.182715 -1.663490 0.633507 0.630737 -1.851720 -0.777531 0.003122 1.571240 0.110570 -0.466281 0.679649 0.510955 -0.639728 0.694015 -0.488697 0.298284 0.312531 -2.320110 1.692920 -0.113715 -0.805916 1.013650 1.053070 -0.369944 -0.328533 -1.170670
frontier 0.769389 0.497821 0.651808 -0.602051 2.541540 1.236290 -0.408697 1.749910 0.974936 -1.078020 0.485454 -0.962963 1.065820 1.119920 0.784659 0.845688 0.775948 -0.081253 -0.302036 -1.979680 -0.124077 0.472695 -1.321120 0.388326 0.542979 -0.117454 -0.243798 0.378733 -0.224854 -0.230068 -1.475780 -0.992961 -1.501710 0.343296 0.057952 -0.310971 0.933816 -0.807737 -0.788339 -0.744246 0.072247 0.571309 -0.393569 0.371300 -0.602841 -0.263029 -0.206847 0.302269 -0.831089 0.718457
frontieres -0.935574 -1.321180 1.208360 0.256430 1.725380 1.343390 -0.288201 0.938750 1.194830 -0.878594 -1.356980 -0.693702 -0.938305 -0.764700 -0.951243 0.812205 0.499476 -0.258441 0.293847 0.328156 0.851978 1.476480 0.130651 -0.190375 0.228403 -0.576840 -0.030316 1.150390 0.377114 0.569388 1.188180 1.227730 -0.265366 -2.197190 0.796767 1.629970 -0.099714 0.453573 0.042728 -0.885259 0.785650 -1.066020 -0.471707 -1.436920 0.339978 1.341440 1.377960 -1.017410 1.535330 -1.696350
fronts 0.017558 0.324186 -0.192305 0.975777 1.189820 1.699970 0.452042 0.459234 -0.193665 1.313710 0.055955 -1.810060 -0.982878 0.477477 1.152320 0.700195 1.094150 1.320820 -0.896319 -0.921177 0.034297 0.232202 0.136670 0.069426 2.357600 -0.354398 -0.013853 0.669028 1.120910 -0.608990 1.057560 0.614761 -0.773810 0.833791 -1.215980 -0.096884 1.866930 -0.576299 -2.291010 0.126285 2.173610 0.617833 1.599570 0.864992 1.935100 1.332180 0.488739 0.048602 -0.029689 0.826302
frost 0.804902 0.874120 -1.052780 0.957917 -0.570591 -1.467660 0.837688 0.616496 1.302380 -0.947509 -0.256931 1.700590 1.313730 -0.732737 0.557741 -1.479900 -0.235759 1.062000 -0.015657 -1.498150 -1.544280 0.231751 0.104128 1.416660 0.066479 -0.542586 -0.199387 -0.237088 -0.084277 -0.603144 -0.600774 -0.917875 -0.157894 -0.227049 0.842658 -1.147770 0.952333 -1.245270 1.079310 0.065002 -0.195046 0.653707 -1.466120 0.823423 0.457204 0.342820 -0.755453 -1.708460 -0.645586 -0.420319
frosted 0.806718 0.577724 -0.798820 1.287060 -0.336791 1.909620 1.186570 -0.404971 -0.385317 -0.422975 0.173850 0.640447 -0.763605 0.179394 -1.700960 -0.842209 -1.102100 -0.773026 0.644182 -0.098414 1.020590 -0.276880 1.030730 0.883614 -1.412280 -1.280950 -1.563710 -1.065910 -2.170590 -0.580334 0.722973 0.904133 0.154015 -0.396548 -1.202580 -1.657160 0.181913 0.230647 -0.389374 -0.292206 -0.537594 -0.582814 1.677830 0.935379 -1.506500 1.183130 -0.319165 0.341425 0.234888 -2.046330
frosty 0.658696 0.585950 -1.078790 0.068685 -1.048730 -0.077079 0.928245 0.835642 -0.044437 -0.373431 -0.169348 2.310890 0.586603 0.322911 0.467294 -0.469455 1.047610 -0.077243 -0.405791 0.697766 -0.082694 -1.049990 -0.500519 -0.472589 -1.666930 1.051710 -0.230480 -0.418501 1.415770 0.813243 0.545241 0.037367 2.001230 0.049517 -0.796542 -0.564864 1.281990 -1.181180 1.053750 0.559209 -1.539340 1.163130 -0.627782 0.756477 -0.335271 1.116500 -0.191647 1.087780 -0.786846 -1.098760
froth 3.148050 0.080535 -0.922293 1.682170 0.542472 0.130819 0.077758 1.699640 -0.598367 -0.886798 -0.397719 1.060660 -0.736603 -0.651389 0.726485 0.699450 0.350097 -0.046429 -0.446627 0.456077 0.693653 -0.868044 1.823180 -0.061198 -0.957532 -1.015990 -0.302972 -0.700136 -0.536975 -0.193181 0.677909 0.387602 -0.536645 -0.345950 0.214303 -1.355310 0.996587 -0.021953 0.492742 1.248220 0.046253 -0.752320 1.063950 -0.411361 -1.499500 -0.944561 -1.451630 1.541400 0.603282 -1.527730
frothy 1.446420 0.364018 -0.384798 0.058196 -1.402910 0.684233 -0.413423 0.726950 1.301160 -0.411019 0.723272 3.053350 -1.703960 -0.658699 0.286139 -0.525300 0.247675 -0.450897 0.699365 1.858820 1.008910 -2.916630 -0.633395 1.182610 0.618735 -0.262827 -1.683890 -0.922480 -0.594868 1.634810 0.747957 1.275350 1.167720 1.115430 0.159322 -1.194800 0.795853 0.157966 -1.026960 1.811240 -0.768574 -1.301830 0.934058 1.606500 -0.588842 2.771860 1.876030 1.747430 -1.666230 -0.626781
froze -0.163345 -1.160220 -0.664027 2.264770 -0.744403 0.858216 -0.550798 0.068960 0.286615 0.174447 -0.406399 -0.183857 0.811063 0.422898 0.880903 -0.670988 -1.860440 -0.059238 0.428856 -1.443820 0.697713 -0.885810 -0.106352 0.570042 0.558962 -0.357584 -0.862177 0.862424 0.257103 1.252090 0.406939 1.147590 0.558704 -0.026526 -0.332591 0.869402 2.028310 1.312760 -1.321960 0.185339 1.007860 2.221590 1.338190 -1.769090 -1.240110 1.155710 -1.589510 0.940460 0.685676 -0.514191
frozen 1.404010 1.030610 -1.215100 -0.173723 0.259294 0.732927 0.969181 -0.048524 0.029503 0.157562 0.412269 1.644670 0.091181 -1.376000 0.557035 -1.074280 -2.033870 0.077774 0.186185 -1.375020 -0.493539 -0.727135 0.566641 1.871410 -1.602600 -0.263138 -1.043100 0.516887 0.181691 1.089320 0.055708 -0.189966 -0.392499 0.413121 -0.889751 -1.097820 0.385362 -0.338290 -0.821341 -0.912174 -1.519070 1.182710 -0.093346 0.181727 0.335613 -0.029453 -1.634740 0.923447 -0.553067 -2.420720
fruehauf -0.238386 -0.686216 -1.413250 -2.532910 -0.927949 -0.800068 -0.424287 0.641886 0.955807 0.914483 0.881628 -0.796771 0.244633 -0.641740 -2.934380 0.134744 0.101746 -0.463400 2.632360 -2.732780 0.223370 0.057613 -0.274550 0.828980 -0.119323 0.210929 0.035787 -0.776596 0.906934 0.557526 2.279340 -1.134910 1.088820 0.805676 0.455730 -0.517152 0.608998 -0.622177 1.980400 -0.598201 -0.201055 -1.396100 0.875903 1.127620 1.283790 2.234610 1.636760 -0.152740 -0.355111 -0.933472
frugal 2.292350 -1.543610 -0.225121 -0.924271 -0.502979 1.045710 0.936421 1.079150 -0.242167 -1.113930 -0.153974 0.954028 -0.109613 -1.338000 0.856753 -0.645287 -0.831427 1.556370 0.159277 0.668959 1.433000 0.883859 0.124250 1.741220 -0.979744 -0.659251 -0.568022 0.005949 0.099138 2.040230 -1.511040 0.532511 1.667130 0.525741 0.117655 0.257631 0.276182 1.174020 0.368551 -0.400399 -0.954217 0.066243 1.224320 0.325533 -0.420669 1.546950 -0.410442 0.376628 -1.930600 -1.076840
frugality 2.916150 -1.789610 0.819682 0.655126 0.151631 -1.455770 -0.205183 0.221514 -0.050577 -0.732956 1.124930 1.001450 -1.089540 -1.805610 -0.104107 -1.062220 0.819991 1.034860 -0.752336 -0.771053 0.537916 -0.136684 -0.927987 -1.347690 0.140686 -1.750550 -1.380550 1.220290 0.284207 -0.239236 -1.245500 0.647020 0.890896 0.682871 0.646850 0.738010 0.652206 0.322145 -0.748486 -0.559832 -0.004300 -0.875088 1.666610 0.216443 -0.737749 0.377325 0.553870 0.646617 0.465933 0.181302
fruit 2.254920 0.723401 -0.654361 1.308980 0.832648 0.135916 0.477759 0.110974 -0.821604 0.066510 -0.752779 -0.064628 -0.656039 -0.307978 0.448413 0.471152 -0.009164 0.533154 1.223110 -1.529960 -0.196311 0.332619 0.454422 0.557358 -1.477740 -2.752240 -0.582116 -0.889099 1.162590 0.085213 0.226233 1.017980 -1.663830 -0.783401 -0.692791 -1.845290 -0.665266 -1.176220 1.524240 0.805598 -2.413920 -0.060870 0.398317 0.894079 -0.603178 -0.167826 -0.246900 -0.102047 0.681379 -0.582974
fruitful 1.131940 -1.432120 0.728832 0.108102 -1.622420 -0.911149 0.354897 0.590745 -0.418865 -0.352817 0.955923 2.583570 -1.319340 -1.047450 2.060220 -0.234949 -0.366624 0.517753 -0.761112 1.708180 0.176027 -0.946299 -0.020317 2.097690 -0.260786 -0.028667 -0.135164 1.113690 -0.536528 0.524354 -1.020360 0.261257 1.271750 -0.383064 0.792573 1.263600 0.296276 -0.498491 0.211890 0.030011 0.092800 -0.401029 0.521063 -0.123606 -1.390550 0.664144 0.701280 0.363903 -2.351960 0.364696
fruition 1.526850 -0.324556 0.213714 0.521979 0.029814 -1.701790 0.128385 0.441545 1.083130 0.318381 0.696051 -0.310422 -1.370750 -1.191830 1.796670 -0.854475 1.026950 -1.770540 -1.001710 1.858000 0.126439 -1.157640 -0.917060 -0.559007 1.517280 0.298422 -0.075157 0.346743 -1.156580 0.149694 -0.491088 -1.499830 0.714777 -1.130410 0.158383 0.641457 -0.231215 0.494824 -0.540655 -0.520173 1.290330 0.772752 -1.266650 0.627806 -2.494790 0.017569 0.087364 1.161520 -0.745065 0.494084
fruitless 0.694846 -1.062640 -0.175955 -0.640063 -0.328451 -0.889329 -0.061793 1.470930 -0.353669 0.245011 1.184980 0.197497 0.094421 -1.098620 1.590440 -1.883130 -0.702251 -0.749509 0.094609 0.937371 0.029828 -0.695385 -0.111143 0.380677 -1.315330 1.697400 -0.363164 0.734378 0.897991 1.206900 0.216120 -0.987428 0.866890 0.107601 0.593336 1.263560 1.242860 -0.493686 0.346338 0.303790 0.565740 0.278970 0.165511 -1.426660 -1.491230 1.114770 -0.200649 1.085180 -2.935170 0.316107
fruits 3.369850 0.015552 -0.729888 1.291690 -0.300455 0.306608 0.958079 -0.247538 0.427941 1.024720 -0.002987 -0.008350 -0.836706 -0.719702 0.842130 0.409786 -0.787918 0.665553 0.682828 -1.422690 0.078027 0.052692 -0.545348 0.982630 -1.163220 -2.158600 0.177647 -0.901566 0.982215 0.126501 -0.203450 0.866172 -0.586703 -1.701250 -0.380264 -0.620244 -0.836644 -0.903240 0.536600 0.400309 -1.005610 0.418874 0.719527 1.444110 -0.197552 0.267323 1.260830 -0.699170 1.869490 -0.846528
frustrate 0.578134 -1.273870 0.135506 0.458412 -0.806985 -0.185434 -0.269307 -0.152287 0.523881 0.085826 1.533070 0.257187 0.644537 -1.355920 0.828775 -0.293320 1.195690 1.799350 -1.280240 0.073543 0.979472 -0.728102 -1.046440 -2.051670 1.180910 1.131410 -1.946130 0.783919 -0.979611 -0.917397 -0.000184 0.344786 1.707890 -0.450643 1.245030 0.973615 0.359326 1.673730 -0.502058 -0.038437 0.754944 -0.078112 1.184580 -0.383089 -0.427051 1.415420 -1.053170 1.249160 -1.477260 0.353395
frustrated 0.406401 -0.667019 -0.720594 -0.491041 -0.612319 0.486517 0.603466 -0.433636 -1.374120 -0.094165 1.036680 1.574720 -0.185338 -0.859136 0.138412 -0.475999 -0.435752 1.494510 -0.381924 -0.659473 0.284215 -1.699010 -0.011054 -0.257482 1.278050 1.971180 0.261230 0.081970 -0.155430 2.054900 -0.332349 1.081590 1.242680 1.982400 -0.897867 1.322800 -0.436286 0.533710 -2.039100 -0.046857 -1.208720 0.471791 0.657677 -0.389695 0.013496 0.727978 -1.071010 0.092601 -0.910555 0.769905
frustrating 0.420374 0.103231 0.600610 -0.619298 -0.360847 -0.424162 0.556099 -0.485939 -0.462876 -0.495754 2.649210 1.420040 -0.008390 -0.149159 0.652142 -0.809428 -0.671345 0.048550 -2.161230 1.000430 0.273047 -1.466850 -0.851686 1.252590 0.652714 0.845738 -0.538758 1.695690 0.033894 0.187260 -0.183077 0.862343 1.405550 0.393778 0.506149 0.075121 0.636893 0.187304 -0.636215 1.620520 0.055608 0.565640 0.769812 0.066155 -0.342696 1.904390 -0.205030 0.097255 -2.375370 1.025410
frustration 2.385180 -0.760864 -0.516472 1.223750 -1.166640 -1.838690 -0.420866 0.605196 -0.039978 0.514692 1.533020 0.159105 0.956464 -1.636150 0.292241 0.161331 -0.231037 1.386410 -1.008080 -0.411125 -0.937436 -1.475440 -0.760226 -1.744850 1.989320 -0.301383 -0.093868 -0.082534 0.091210 0.605736 0.643676 1.084090 0.766209 -0.055562 1.341800 0.373221 -0.625585 -0.609455 -1.119950 -0.394898 -0.612560 1.083370 -0.754558 1.223670 0.037296 0.234603 -0.070605 0.119898 -0.677680 0.184041
frustrations 2.131700 -1.037940 -1.139470 0.284994 -1.552970 -1.910970 -0.328994 -0.547852 -0.754724 1.073400 1.812510 -0.324031 0.113832 -0.631555 1.012410 -0.223499 1.475720 1.113850 -0.917377 -1.028190 -1.200960 -0.660224 -0.035293 -0.840788 2.089500 -0.899479 -0.818907 -0.020863 0.790294 0.889339 -0.211039 2.130610 -0.034271 0.016167 1.124800 0.284873 -0.269364 0.077819 -1.205510 -0.282798 -0.261201 -0.786729 0.871631 0.854171 0.344487 0.363357 0.366508 0.144191 -1.030820 1.341790
fry -0.052154 0.626365 -1.898080 0.991612 -0.992715 -0.937656 -0.628704 -0.814234 -0.168030 0.516769 0.213979 0.807656 0.194908 -0.405024 -0.941052 -0.427414 0.428666 0.742813 0.002885 -1.758500 -0.286151 -0.090045 0.391485 1.579700 -1.189810 -0.533074 0.208541 0.042369 0.469828 0.630229 -0.051631 1.070870 -1.802350 -0.110946 0.818044 -2.349170 0.476021 -0.168887 1.536560 1.005440 -2.709790 -0.104351 -0.551260 0.002569 1.064830 -0.640867 1.070810 -0.475463 0.550652 0.245889
frying 0.766845 -0.333616 -1.857790 0.930461 0.095067 1.688830 0.125013 0.626141 -0.544850 -0.273567 -0.924616 1.759520 0.200244 0.043713 0.027358 -0.073630 -2.500940 -1.040110 -1.144810 -1.444270 0.744277 -0.531967 0.993091 -0.816276 0.005759 -0.946277 -0.814491 -0.363938 0.422898 -0.212040 0.396851 0.980308 -1.420810 -0.915692 -0.279947 0.354261 -0.287764 0.552014 -2.395590 1.437880 -2.586680 -0.117615 0.270521 0.304982 -0.401006 0.486361 -0.757224 -0.879195 0.771920 -1.461620
ft -0.455465 1.278050 -1.458780 1.141830 0.486018 0.843265 -0.494522 1.554520 -1.216090 1.305870 -0.349374 -0.390518 -0.221360 0.392683 -1.383690 -0.950864 -0.697955 -1.117320 -1.402050 0.864018 -0.540627 -0.584820 -0.016492 0.911802 -0.147803 -0.473279 1.755220 -0.317228 1.172750 -1.594310 -0.637162 -1.131880 1.409340 -0.380888 -0.898339 -2.420570 -0.576947 -0.769783 -0.131052 0.555598 -0.123571 -0.213807 0.055870 -1.423430 -0.795335 -1.343070 0.732911 0.197480 0.090136 1.283000
ft-se -0.429997 -0.559443 0.446308 -1.591990 0.128322 1.034570 -1.540840 0.430471 -0.407749 1.871320 1.369460 1.915340 1.935880 -1.263310 -1.369450 1.109670 1.216200 -0.756921 0.669427 1.291320 -0.362035 1.402920 -1.629500 0.086069 -0.441590 -1.036740 0.006977 0.685854 -0.257558 -0.495170 0.958635 -0.435035 2.330020 -0.614100 0.719515 -0.472178 -0.266734 1.241200 -0.317663 1.003070 -0.438135 -1.010810 1.662740 -0.600227 0.720613 1.132670 2.675530 0.103761 1.994740 0.646592
ft. 0.362170 0.098390 -0.574752 1.585010 0.052622 1.214970 -0.776623 1.225010 0.038160 0.763861 -0.407188 -0.416299 -1.010640 1.343650 -1.998050 -1.135440 -1.402550 -1.075300 -0.044881 0.817814 0.081978 -0.848463 0.728029 1.076220 0.010606 -0.728817 1.872810 -1.294150 0.508352 -1.485870 -0.720804 -0.483758 1.535200 -1.844510 -2.076200 -1.326730 -0.343338 0.200758 -0.749688 0.169791 1.279640 -1.081630 0.678799 -0.707134 -0.749219 -0.789217 0.365216 1.203130 -0.347712 0.149134
ftc -1.160310 -0.149781 0.479569 -0.953539 0.078930 -0.653554 -1.375220 1.246450 -0.627989 -0.935837 1.576690 -1.867910 1.473390 -0.824744 -0.403194 0.517032 1.932500 0.044487 1.098160 -0.707369 1.264470 -0.278371 0.865767 0.059103 -0.302048 0.110197 -0.449162 0.377502 -0.936146 0.956868 -0.472054 -0.925634 0.169426 -1.909140 1.899660 0.882988 -0.387767 0.288678 0.848828 0.478257 -1.034530 0.114255 0.857867 0.545907 -0.083579 0.206467 1.839800 1.061180 0.939885 -1.201970
fudge 1.863340 0.832031 -1.100340 2.270300 -0.624842 0.519874 1.235040 -0.915818 -0.369142 -1.320460 -1.038480 0.792759 0.491096 -1.242600 -1.125740 0.784690 0.631492 0.238079 1.027390 -0.571705 0.899983 0.585006 -1.018130 -0.138397 0.367542 -0.860192 -0.155794 -0.613981 0.309438 0.341947 0.464613 1.444800 -0.972703 -1.129210 0.981933 -0.784416 0.906163 0.298140 -0.394940 0.496418 -1.908060 0.097784 -0.302269 0.695150 0.149673 0.490134 -0.397060 -0.342754 0.429443 -3.210690
fudging 1.429590 -1.879010 2.862040 -1.014170 0.228629 -1.093910 -0.533438 -2.693780 -0.427732 0.661420 0.465487 2.395460 0.984929 0.587680 -0.111827 0.086648 -1.629900 -0.371681 0.963290 -0.071919 -0.474060 -0.250880 -1.659670 -2.401300 1.729190 -1.625560 0.092478 0.111731 -0.308848 -0.251315 0.211099 -0.312391 -1.631360 1.430220 0.787017 -0.768298 0.094170 -0.496696 0.810933 2.189470 0.958164 -2.596510 1.712110 -0.586391 -1.698880 0.469571 1.363950 -2.640320 0.620172 2.805280
fudosan 0.568536 -0.919711 -0.807693 -0.861863 -0.075606 -0.469173 -3.194210 2.428800 1.244600 1.286340 -0.616283 -1.006220 -0.908461 1.791840 -1.547930 -0.110638 3.165830 0.451351 2.413510 0.201595 -1.566250 0.914193 -0.170684 -0.352963 -0.435881 -1.194700 -0.950948 -0.125993 -0.378060 -0.702418 2.562020 1.179890 1.226150 -0.139871 1.479600 0.536597 -0.417197 1.102060 -1.452960 0.456777 1.380140 -0.621258 0.054499 -1.074800 0.518325 2.060710 0.713868 -0.963827 -0.529073 -2.722850
fuel 1.659540 0.801863 -0.680939 0.630575 1.555980 -0.027581 0.165764 1.292270 -1.341550 -0.053520 -0.834486 -1.009030 0.127503 -0.156521 0.920371 0.279735 -0.112073 -0.225533 -0.238885 -1.816990 -0.990657 0.208337 0.718190 0.903057 -0.322985 1.169670 0.390891 0.811008 0.628683 -1.598790 1.560660 -0.354287 -0.714735 0.003595 0.060578 -0.529266 -0.692224 -0.415438 -0.012336 2.668870 -1.164790 -0.394608 0.825130 1.027590 -1.492660 0.388107 -2.209370 0.805027 -0.381742 -1.279730
fuel-efficient 2.313550 -0.691624 -1.931680 -1.628270 -0.085899 1.967520 -1.321360 -0.572013 -0.595056 3.504010 -1.270920 -0.969923 0.287709 -1.256850 -0.858096 1.193440 -0.978702 -1.957440 -0.697675 0.523605 -0.391905 1.084470 -0.081849 0.790340 0.294797 1.374310 -1.451730 0.899818 -0.059519 -0.785348 1.031360 -1.277600 0.932694 3.189520 -2.482200 -0.632401 0.042025 -1.740370 0.637061 1.545100 0.911865 -0.488977 3.031130 -0.886556 -0.961000 2.568090 -0.190910 -0.782651 -1.185600 -0.631887
fueled 0.105424 0.749209 -0.094551 0.335633 0.874704 0.063443 -1.054950 0.515309 -0.889797 0.168525 2.290940 0.693690 -0.327611 -0.160448 1.825060 -0.377053 -0.357066 2.029970 0.340880 -0.286727 -0.423194 -1.536030 0.038165 -0.699826 0.541763 0.722256 -0.134834 1.508250 0.110004 0.701646 0.039034 0.629122 0.147599 0.659404 -0.815599 1.344910 0.838910 -1.196600 -1.167090 0.098041 1.247400 0.479892 1.422230 -0.702114 0.246149 0.601583 -2.292430 -0.638905 0.396855 -2.365030
fueling -0.736432 -0.125740 -0.515498 0.352310 -0.660166 -0.696951 -0.184981 1.955560 -1.160740 0.099029 0.515164 -0.285742 0.491871 0.648301 0.588682 -1.470400 -0.590082 -0.282891 -1.160350 -1.546080 -0.413526 -0.206505 -2.224760 0.453494 -0.131588 0.319045 -0.458165 1.354710 -0.266147 0.416362 1.045430 -0.798312 0.278215 0.285432 -0.611906 0.816937 -0.026061 -0.808050 -1.302740 0.786428 1.115920 0.751256 2.069390 0.190358 -0.111805 1.600940 -0.722557 1.907520 0.070758 -0.861885
fuels 2.210560 0.603697 -0.158113 1.246400 0.657831 0.324469 -1.461970 1.079520 0.155461 0.269928 -0.091263 -0.800559 -0.105900 -0.162761 1.641720 0.293937 0.345760 1.076660 1.322200 -1.262510 -0.368413 1.098560 0.276513 0.950021 1.112550 -0.049842 0.005930 1.366710 1.081460 -1.044200 0.114914 0.026144 1.059130 -0.298158 -0.559540 -0.024958 0.012287 0.200222 -0.742732 1.691710 1.002620 -0.721216 2.048160 0.927469 0.668286 1.344600 -0.014975 -0.220858 1.132620 -3.153160
fugitives 0.048813 -0.408187 -1.448000 -0.078397 0.965146 0.718986 -0.216073 0.106784 -0.272757 -0.200662 1.374250 -2.025400 0.843619 0.105600 0.451039 1.006310 0.421350 -0.926393 -0.119496 -0.770210 1.066810 -0.324858 -0.317331 -0.596046 0.367604 -0.277305 -0.712975 -0.161528 1.934920 1.645500 -0.635613 -1.288590 -0.071747 -0.398071 0.449352 0.146241 -0.178096 0.055330 -0.064873 -0.611125 0.349810 1.875430 0.093297 0.875740 0.638915 1.670990 1.873980 0.378713 -2.724720 0.412818
fuji 1.167640 1.585540 -1.553540 -0.143703 0.948197 -1.564010 -0.699893 -0.046446 1.312640 0.091902 -0.399447 0.708174 -0.092296 0.296725 -0.876922 -0.278389 1.016670 0.209712 -0.584708 -0.312357 -0.143460 -0.070634 -0.254523 -0.304680 0.007651 2.126230 0.052321 0.697327 -1.147260 -1.143390 0.103127 -0.378101 0.997237 -0.980998 -0.529833 1.069550 0.546828 -2.640110 0.931675 0.628554 -0.670339 -0.154038 -2.300420 -1.090430 1.227310 2.057780 -0.433189 0.045167 -0.313349 -1.116580
fujisawa -0.428959 -0.700637 -0.425778 -0.065030 1.398470 0.358848 -0.340096 0.109019 0.326703 -0.996451 -0.955909 0.078068 -0.895680 -0.379088 -0.260648 -0.592440 1.179480 -0.560349 -0.291993 0.197592 -0.550370 -0.453233 -0.448892 -1.174120 0.971193 0.417044 -0.240211 -0.401929 -0.461556 0.177311 1.311690 -0.864294 -0.536714 -0.858829 0.566040 1.026480 0.951584 -0.263530 1.349730 -0.843398 0.639482 0.132886 -3.545880 -2.088290 0.198075 0.556755 0.650247 -0.167063 -2.057730 -1.485480
fujitsu -1.472390 -0.554877 -0.655440 -1.332700 1.104650 0.280635 -1.083230 0.791638 -1.069600 0.375555 -0.086827 -1.496450 -0.632299 -0.133981 -0.698489 -0.043506 1.168840 0.041725 -2.001300 -0.307693 0.529287 0.476427 0.863532 0.950611 1.976580 1.385450 0.216914 0.186488 -1.799880 -0.281582 0.675461 -0.817810 -0.360303 -0.950015 -0.248681 0.168154 -1.589050 0.123328 0.707967 1.104860 -0.842950 -1.585960 -0.229306 0.093428 0.722353 -0.086333 1.013660 0.473520 0.568100 -2.598670
fukuyama 0.388540 -0.824047 0.187517 0.286348 -0.357001 -1.151750 -1.582000 1.472050 0.165125 -0.437910 0.320971 0.360593 -0.186982 -0.120683 0.697065 -1.271700 1.747750 0.671746 -0.524529 1.157040 -0.750108 0.689973 1.121610 -0.689964 0.489960 0.772728 -0.714927 -0.883513 -0.976246 2.037410 -0.069376 0.433142 0.870598 -0.359143 1.505090 -1.590610 0.319318 -1.848260 0.153812 -1.106200 0.758152 -1.264590 -1.077980 -0.760224 1.457810 0.091618 0.547704 -1.251810 -0.701474 -0.824210
fulbright 0.135913 -0.934733 1.449850 -1.230080 -0.863960 0.798748 -0.998477 -0.166579 -0.436692 -1.427920 -1.579240 -0.092657 -0.475701 -0.007766 -0.738878 -0.567270 2.192460 -0.441684 -0.520960 -0.164436 1.154580 -0.241080 0.260859 2.280740 0.370732 0.354965 1.753980 0.261851 -0.231076 0.985369 -1.557560 -0.654007 0.875224 -0.040794 0.021113 1.459750 -1.372510 -0.482555 1.208870 -0.279476 0.372127 -0.491263 0.069412 -0.411053 -1.793280 -0.713567 0.917932 -1.304470 -1.577380 0.596287
fulfill 0.063375 -1.093320 1.944050 1.749720 0.462615 -1.511770 1.601820 -0.601697 0.392563 -0.676398 0.286506 0.742088 0.120946 0.195496 0.322140 0.130133 0.782501 0.015464 -0.606314 0.834401 1.634520 0.452411 -1.115590 -0.436682 0.344118 0.638819 -1.734510 2.196400 -1.314300 -0.579991 0.226902 -0.675181 1.622410 -0.680420 0.194721 1.414820 -0.289132 1.712170 -0.033321 -0.225298 0.591638 0.584671 1.219610 -1.550630 -0.332478 1.166990 -0.555718 0.959764 0.525727 0.842453
fulfilled 0.104849 -2.452380 0.988672 0.986101 0.581131 -0.148710 1.536020 -1.467440 1.225120 -0.435938 0.600434 1.259420 -0.096297 0.109542 0.729079 -0.666249 -1.140810 1.223430 0.394962 0.625107 1.342130 0.019192 0.433495 0.984784 -0.612579 -0.314414 1.299080 1.502790 0.270419 0.517199 -0.313354 1.486990 3.159640 0.340153 -0.772897 1.540720 0.020952 0.052540 -0.762036 0.177374 0.520537 1.362380 0.932583 -1.410740 -0.257751 1.121730 -0.125316 -0.378629 -0.433189 0.449879
fulfilling 0.099654 -1.488050 1.048500 0.069411 0.459472 -0.233838 1.014130 0.167799 0.300704 -1.289190 1.316170 1.527090 -0.012547 0.139105 0.609056 -0.655530 -1.750860 1.633970 -1.004500 1.280670 0.397026 0.991097 -2.084010 -0.144564 0.095533 -0.366165 -0.332739 1.815080 -0.492749 0.524839 -0.006854 0.231273 1.957030 0.306516 -0.161666 1.224630 -1.312460 -0.581728 -0.006740 0.727332 -0.771303 1.014400 1.606350 -0.953608 -0.895139 1.415820 -0.404943 0.895667 0.720938 0.446025
full -1.012660 -0.273452 0.370395 0.097444 0.660899 -0.915372 1.860140 -0.409218 -0.054631 0.896511 0.744654 0.912049 0.172782 -0.812931 -0.622003 -0.571157 -1.573920 0.241846 1.806340 1.374040 -0.523361 -0.275812 -0.796936 2.487760 -0.004522 1.399690 0.663810 -0.063843 -0.760078 -1.708090 -0.254073 -0.233213 -1.113370 0.842575 -1.326680 1.191170 -1.668400 -1.899120 -0.439825 0.552284 -0.160223 -0.908810 -0.182860 -0.030082 -0.008691 0.150339 0.419143 0.639816 0.361714 -0.080781
full-blown 2.101900 0.096202 1.110050 -2.050330 0.525323 -0.410622 -0.268251 1.336230 -0.432664 0.874349 0.836646 0.930850 0.486236 -0.665889 -0.071903 -3.276580 0.462154 -1.257010 1.152750 0.225357 -1.160830 0.702149 -1.553860 0.073078 -0.751716 1.786740 0.467619 -0.447590 0.684021 1.252180 -1.777920 -0.738701 1.540530 2.468760 3.550440 -1.693290 -0.454787 -1.021000 1.872240 0.558888 -0.093295 -1.805150 1.211100 -1.168290 -2.803660 2.147680 -0.150829 1.097460 -0.316047 0.684087